Language model created by QuickLM on Sat Apr  7 00:25:16 EDT 2018
Copyright (c) 1996-2010 Carnegie Mellon University and Alexander I. Rudnicky

The model is in standard ARPA format, designed by Doug Paul while he was at MITRE.

The code that was used to produce this language model is available in Open Source.
Please visit http://www.speech.cs.cmu.edu/tools/ for more information

The (fixed) discount mass is 0.5. The backoffs are computed using the ratio method.
This model based on a corpus of 1 sentences and 22 words

\data\
ngram 1=22
ngram 2=21
ngram 3=20

\1-grams:
-1.6435 </s> -0.3010
-1.6435 <s> -0.2910
-1.6435 ADD -0.2910
-1.6435 CLEAR -0.2910
-1.6435 DIVIDE -0.2910
-1.6435 EIGHT -0.2910
-1.6435 EQUAL -0.2910
-1.6435 FIVE -0.2910
-1.6435 FOUR -0.2910
-1.6435 GIVES -0.2910
-1.6435 INTO -0.2910
-1.6435 MINUS -0.2910
-1.6435 MULTIPLY -0.2910
-1.6435 NINE -0.2910
-1.6435 ONE -0.2910
-1.6435 PLUS -0.2910
-1.6435 SEVEN -0.2910
-1.6435 SIX -0.2910
-1.6435 SUBTRACT -0.2910
-1.6435 THREE -0.2910
-1.6435 TWO -0.2910
-1.6435 ZERO -0.2910

\2-grams:
-0.3010 <s> ZERO 0.0000
-0.3010 ADD MINUS 0.0000
-0.3010 CLEAR </s> -0.3010
-0.3010 DIVIDE EQUAL 0.0000
-0.3010 EIGHT NINE 0.0000
-0.3010 EQUAL GIVES 0.0000
-0.3010 FIVE SIX 0.0000
-0.3010 FOUR FIVE 0.0000
-0.3010 GIVES CLEAR 0.0000
-0.3010 INTO DIVIDE 0.0000
-0.3010 MINUS SUBTRACT 0.0000
-0.3010 MULTIPLY INTO 0.0000
-0.3010 NINE PLUS 0.0000
-0.3010 ONE TWO 0.0000
-0.3010 PLUS ADD 0.0000
-0.3010 SEVEN EIGHT 0.0000
-0.3010 SIX SEVEN 0.0000
-0.3010 SUBTRACT MULTIPLY 0.0000
-0.3010 THREE FOUR 0.0000
-0.3010 TWO THREE 0.0000
-0.3010 ZERO ONE 0.0000

\3-grams:
-0.3010 <s> ZERO ONE
-0.3010 ADD MINUS SUBTRACT
-0.3010 DIVIDE EQUAL GIVES
-0.3010 EIGHT NINE PLUS
-0.3010 EQUAL GIVES CLEAR
-0.3010 FIVE SIX SEVEN
-0.3010 FOUR FIVE SIX
-0.3010 GIVES CLEAR </s>
-0.3010 INTO DIVIDE EQUAL
-0.3010 MINUS SUBTRACT MULTIPLY
-0.3010 MULTIPLY INTO DIVIDE
-0.3010 NINE PLUS ADD
-0.3010 ONE TWO THREE
-0.3010 PLUS ADD MINUS
-0.3010 SEVEN EIGHT NINE
-0.3010 SIX SEVEN EIGHT
-0.3010 SUBTRACT MULTIPLY INTO
-0.3010 THREE FOUR FIVE
-0.3010 TWO THREE FOUR
-0.3010 ZERO ONE TWO

\end\
